0.0
-0.6909825042764047	-1.0600939375868104	-0.2904472082088998	-0.8109081788032754	-0.6685176627903657	-0.14371609148606343	0.4452977926078072	0.41724623906264136	0.4865713978299704	-0.502344809524676	-0.3646926040418423	0.8304885201342088	0.17341119430408783	0.8190962485312173	-1.0277716857867103	-0.15015521506186133	0.9561218427046482	0.18869528118890305	0.09256683474377948	-0.2832524096139554	-0.4922412738655321	0.45647486692428213	0.15232224418494145	-0.9109271886243653	-0.5928999391672443	-0.17956150569617174	1.1463489318592939	0.030893509244452045	1.1445950345059355	-1.4884835757580326	-1.7186425644101109	-0.426657178787799	0.27459871477219483	1.365688608464382	0.5200873119464697	1.8104491224144186	-0.08214204240662346	0.5340202465921892	-0.19254000078484518	1.0597564350317144	0.5721060186315268	0.04552700475227993	1.441297675506512	1.92183035727771	1.121473144274391	-0.1098386777242419	-0.617557987403463	-0.643369344333236	1.059991532880334	-2.3106261605952403	-0.38344492668203833	-0.19268132774945493	-2.501947706246207	0.3446910559661667	-1.4020470183117224	0.17878686853126258	2.1703214197175917	-0.7577012252667584	0.3977489255350343	0.013729146973438716	-0.24421606526211265	-0.2044557401713493	-0.5192702952702464	0.06965604554879264	0.9226826493706027	0.8567750338565036	0.01989680822999612	0.6725735918563572	-0.9461424857631073	-0.17729702202558054	-1.1380861334054762	0.4615071666305434	0.2405266714508692	0.5821495883926434	0.09191599079897537	0.8107439240606673	-1.0368716519047918	-0.7103702055745987	0.3822610369502974	-0.7170911547255754	0.25879062243948964	-0.6763948330003183	0.043913670217604006	-0.21521769501911145	-0.852333998970353	0.9496643571989274	-0.8375020668587321	1.1728274047914793	0.2091181303622566	0.7949437949435829	1.3828424240765775	0.519076423230335	0.8481449824649461	0.04085516033013028	-0.11061793499862005	-0.2674092813438551	0.3633005205994304	-1.1999672129221897	0.5176673287305118	-0.36313575322198505	-0.3850706002959156	0.34517098275600117	-0.2094186678127208	0.1260776467971871	0.2828732511219063	0.5455389917587731	0.35954045975341276	-0.6224841188225567	-1.0246961837333253	0.18880834629523366	-0.4317484895814911	0.814452286919716	-0.8638978461019724	-0.1525338890532321	1.0119375860928836	-0.36133182546117826	-0.9280886443261095	-1.0050618283599397	-0.28119056436864737	-0.6365646905636357
-0.5788046847390477	-0.4192224428273506	-0.020453727624678154	-0.042847863020987954	-0.9580211804052462	-0.04160486214380624	-0.3945809495711766	0.9351522573084626	-0.09592757703647167	0.8388457939674514	-0.4361823812194014	-1.029142513562661	-0.08160374557252126	0.7265888709867068	0.06923129133045088	-0.4353662571223709	-0.3576893110646687	0.26528771787082134	0.9298326215893418	0.6360064299301184	-0.8585602301807577	0.8854939253606763	0.49562099276805316	-0.46775803556487106	-0.6668085642562923	-0.6266100627222957	1.1369585431506717	0.18333888671771295	-0.7518825808091733	-0.5583519248893882	-0.22012368895821222	-0.4039577684213908	-1.1022419130239263	-0.23074798573013913	-0.6916053768963069	-0.8928974427949441	-1.3852087108207607	0.26928323105797963	0.2860513904740308	-0.1988243911512917	0.5921214819004812	1.063794890057	-0.6064087400850375	0.2705736303536802	-0.3483860252977498	-0.31785196916254865	0.7132195243044648	-1.4048685147263946	0.1912332844323567	-0.6646987429898322	-0.4469189007969538	0.26267570400640783	0.1450976511187381	1.3069620768482628	-0.1770393278657174	0.009932526611093208	0.011285040262370344	-0.1540189894264651	0.7186233717782399	-1.4791617880385348	-0.6317233486075621	-0.16254761114597183	0.06472753678458382	-0.7480059090230108	-0.2794219765782078	-0.38808348611964155	-0.9362944105331588	0.7041060079110782	0.09148930316326567	-0.7473092859852314	-0.9941236811335694	0.2566463554527579	-0.08938341102841837	0.4133085671574756	0.7143379460930713	-0.4680526465657987	-0.9471961333669606	1.0983293965730936	0.09090918224490502	0.3870757313853936	-0.16327460639496122	-0.23128728789996808	0.45628082277982357	0.4509068148797202	1.040463582420617	-0.8154912673515393	-1.1233583171551669	-0.9693132742898611	0.48671681516257265	-0.19358892608198144	0.6608878628951275	0.9887205099106747	0.23988392225711117	0.46726450811493436	0.42690142496792405	0.9110604651489336	0.5251776278636159	-0.8615965979132653	1.220684580959081	0.47730525138858454	0.6792372521859819	-0.13989882281540528	0.9979804833903193	-0.41152358695936564	0.5843347127501952	-0.4681410820991865	-0.5956854869134007	-1.0045145916358864	0.6890500580864812	0.07151495720450048	-0.3911493038895259	-0.22558145025892878	-0.6392883762116985	-0.5908781508642009	-0.8214037284872097	-0.5405677810308253	1.0295296546140735	-0.982322956532813	0.01565058238283482	1.7912143048857752	0.9499015665319149	0.8007502844003195	-0.46492034716601394	0.8029945589506385	-0.8561980840679358	-0.45348404019799954	-0.3906569747062254	-0.27781191738247724	0.5800875883045671	-0.3031470690823248	0.2666034409487693	1.0330097065079165	0.7133510599195735	-0.04835459303293179	0.4590703119927344	0.9225227512479722	-0.27745497740838837	0.025207047095060903	-0.20941705394917567	0.37808889029896897	-0.12101072720081442	0.17881147849893939	0.7520764835372156	0.8886966861205772	0.9284582037225764	-0.5783678329423556	-0.7502557660259422	-0.6248585671991087	0.60359920297389	-1.1186528529234216	0.5648481078002208	0.03264183358677634	0.325137755485675	-0.7058975655775637	-0.7674325187852602	1.5238322251711094	-0.4926810883924503	0.1103360546381628	0.5374248113648958	-0.5921301454567763	-0.6680170434532455	-0.36255767377458986	0.6156399020470534	-0.2950957310151593	-0.5894084268316243	-0.9618494423414551	-0.7148271657998643	-0.793047257062949	-0.029519167786661343	-0.3554334895673868	-0.9639167865375753	-0.6307346107485226	-0.7227028353359328	-0.08379303989122122	-0.808261479594926	-0.1027257923326745	0.3361602727622098	-0.5477708997799722	0.6581091203034352	0.8745625124526514	-1.128728778336196	0.7015761744662203	0.8388641248427585	0.3076356785457057	0.16522440411761632	-0.37748500435242505	-0.4715321672933323	0.9817776055424152	0.0029931867664563464	0.021119458153486224	-0.19763036496712533	-1.162406480614123	0.7467983685638014	-0.7747835925206751	1.1848206163542958	-0.219503389250717	-0.7863021703573178	0.533470097613799	0.6295135710186223	-0.5534789814060319	-0.007256778806679188	-0.7789510521452403	-0.5697223015819195	-1.7858892256933965	0.1756688778466924	-0.18422097290341785	0.44404061650043014	-0.05684740892912867	0.6798595415868466	-0.6587474782419203	-0.825487629353707	-0.7568763057352877	-0.162950002110835	0.9092999523252783	0.9938416999380502	-0.44979465971874644	-0.10510162717964602	-0.8047576032359354	0.20656532335823555	-0.9476348642747057	0.4271876928423519	0.7734153109554065	-0.7313106527816305	-0.9298751094108819	-0.15803093852939623	-0.8404552505362086	-0.7572102351553442	0.5071113441733245	0.18527191151329245	0.28252175280967606	0.8756539206117364	-0.8920654930887525	-0.8683506159141564	-0.6602392622198616	-0.04867429929540732	1.0926966447086264	-1.062286443534051	0.7230985317940704	0.5222476651765212	0.003134647770463912
1.5397945853569879	0.6254519562616364	-1.2860203100177097	0.005780602960097659	-0.01802192380968074	-1.3089434035667482	0.5759690966357461	0.5636624881102253	0.9942178076992663	-0.26537010952088297	-0.5192782407786236	2.95551418024693
