0.0
-0.5102667311157586	1.185206025265068	-0.11329955635342023	-0.3601841232515525	-0.5156308517395124	0.6870372842094321	-0.6851404307842891	-0.19714786509274912	1.221124771008326	0.2312778573324072	0.8136028144622971	-1.3897158231789666	0.9350201084183067	-1.3111984614045982	-0.4226270576897134	-0.45556172615614043	-0.046920971962515996	1.566092061287722	-0.8065760604358059	-0.4579114659893118	-1.4560076180817856	-0.3048974735150083	-0.015372235838785468	-0.38969848019451875	-0.6726398517007283	0.3320066796512593	1.8017328667821688	-0.7258380966092458	0.6847211763946855	0.8507251521238528	0.23629216475327763	3.416783970241603	-1.7597558845829244	-1.5955849191958615	2.4011373624067307	-0.4095021732977202
2.071542391537675	0.06259356126635454	-0.4162018164232179	0.201258462819684	-0.1464552553443689	-0.9561650227335629	0.5425400045100244	-0.471537101278415	-1.176081928896439	-0.0638094687048653	1.9533877504823278	-1.3829593095773975	0.05762861179060559	-0.2736440386642571	0.6361995717474509	1.6788388797812237	0.5763117834170249	-0.12087491339266215	-0.8138016969429532	-0.18422021650032266	-2.154648848287003	-0.2125868007366354	-1.4024997311870189	-2.585639005260152	2.3083454673697257	0.45630398684810763	1.0456861318053599	-0.1717313650553932	1.800114384106152	-0.5524857428058494	3.596438906202635	-0.5551257373858624	1.2459213748123699	2.231834670150905	-0.9448691865132798	-0.6047202078028693	1.039338875260266	-0.7175788236482209	-0.7687029266071365	1.6010135183411565	-1.46606767205079	1.5140892250117595	0.3862840558066022	-1.710438959229788	0.8642249076673285
-4.804498563506404	2.0200281370191986	-1.7203735257282076	-3.763184623579938	3.157785436009016
