0.0
0.63037188632444	-0.28787673012777354	0.9702460275444268	-1.2078616241743372	-0.07885185708324619	0.27986735769315213	-0.4276301790955796	-0.18962094748383554	0.968970201881449	-0.26334981588489537	0.6635627231068019	-0.5426650621920653	0.4932707061659947	-0.8198858769725945	-0.7580341298214301	0.3955257497609817	0.22558907852842938	-0.5022587442145489	0.5338461127848542	-0.3200081088429434	-0.5070378638329004	-0.9727489164860583	-0.571002701242701	0.6947344144638731	0.9934629009239903	0.16957193961920872	0.45785800500053503	-0.7720941916225956	0.6946509444007133	-0.2704128423933711	-1.1080475733514035	0.06942354585118865	-1.2003679169249115	0.9747591211481283	-0.6162370953731119	0.5673295612555928	-0.8348543253610313	-1.1748455009477994	-0.1661151400728876	-0.26197792781325013	-0.7982384431170083	1.0822314395879633	0.4775312087495695	-0.45705016989926783	0.1500408431760942	0.06115099306053052	0.34434745006435735	-0.7911598380283623	0.5047122321185108	-0.35717997767961746	-1.6100512790357235	0.06375769699684011	0.8416406869671016	-1.2189100389776892	-1.0653134950893137	0.6761627296039413	-0.8212500614004528	0.2938060804730051	0.2286201738590161	-0.13297158614387708	-0.05365884676804881	-0.8455261115798862	-0.16339810883558364	-0.4169796738510885	0.9868208529056243	0.4708431963486768	0.6906375177228092	0.7930207639422686	-0.5114268575514545	0.0395086195031211	0.758037316023239	0.2707879023010398	0.27812748999750103	-0.371768528932035	0.893840652980417	-0.7468890788306846	-0.19144884544846424	0.3492862026904862	0.09700950938492235	-0.21777104129947997	-0.9221123626793745	-1.154944620031978	0.38314905745727884	-0.2896176530376013	0.370669306526399	-0.2163269715996823	0.36426703639483005	-0.4564582900025485	0.5004886529659324	-0.06768345173650252	-0.9611217635504518	-0.5464869384428911	0.0020122457982929376	0.8678388586153909	0.47486340525109033	0.647175009218376	-0.6971946710987922	0.19776534073693017	0.26383294183566774	0.6416560759044051	-0.7262765726417291	0.0657482652538055	-0.6775326490009239	-0.0036525934394454856	0.2791880372478909	0.8265722448889352	0.6904757302428312	0.2344547271247765	0.6775859614361622	0.020789950928534796	-0.5700838888829365	-0.46061332081157547	-0.7245677153790973	-0.10341763065385	-1.1155610460909018	-0.6845295359189109	-0.3638814405582556	0.2818691025233261	0.15491089173798644	-0.8163660383587283	-0.7556851975187496	0.8112199196377321	0.5961767625322313	0.5406365704225295	0.294869748964175	0.07504829305332303	0.01554843413554255	-1.2577209425864027	-1.2523234315409115	0.25591284964546	0.7794724269103491	0.3373203235875448	0.5818533883290655	0.8055695353039539	-0.6528887784107439	-0.7714782235310396	-0.46189638660440113	-1.0153136345045486	0.12621564410989491	0.5288285362360243	-0.7369832958765988	-0.79380380898191	-0.43105232606573524	0.023607161006258086	-0.9704943735411877	-0.46212205723346955	-1.1416067129770735	-0.8478616992216584	-0.04417230103282735	-0.33858704363763703	2.2879079948070142	-1.693226773345184	-0.796671256658164	1.138777924772162	-0.7042650826604645	0.006499184546892409	0.014661120318958401	-0.29490150427006145	-0.21127396412146093	0.5195296254595422	-1.0188843950972724	0.18246834189950925
0.7642598147327885	-0.8750304787840465	-0.30823795090188594	-1.2322211725319359	-0.2690986727736246	-0.8560571140009714	-0.25302979029619793	-1.1549480764818276	1.1177537997966425	-0.9398449852850721	0.21241407172090415	0.09957697756592465	0.286426391903568	-0.9870342861730337	1.490425678052397	0.21158724417768063	0.8091230978110118	0.03910791704390453	0.465199895391238	-1.3406292079665971	-0.31547214007959323	-1.3806992688240975	-0.4668527617916945	0.6693844789886517	0.7862787994430657	0.18649830702137618	1.000243983207273	0.009616395339451366	-0.6100049574128786	-0.15116985215585718	-0.6095166505499128	0.8041027964246413	-0.8181928046214255	0.21673179335324302	-0.7325860817632555	0.4379572337068877	-1.1169094108259865	2.036946043624604	-1.3832313847009001	1.9178228638558186	0.46636374026712046	1.0320948522885094	0.6569084998711733	-1.4556644158483805	0.6253803344977904	-0.4177190674038753	-0.08254828353906608	-1.4989287371579663	-0.3865492461198704	-0.4401786852814003	0.27493945109582857	0.6601480879955929	0.7801817265405357	-1.073756145682743	0.6170825553218943	0.21728920245974317	-0.27424787580216936	0.6385105692274377	0.3824112100672354	0.6526842002342316	0.07036147452691911	-0.7360741875412896	-0.9176535732996514	0.2655840111145299	-0.892432309949877	0.7604187537103402	-0.035501732026622185	-1.0606025395687724	-0.032327093031894266	-0.5014009984286233	-0.10879126088824888	0.35961253025691564	0.7031957833784831	-0.09204952399993906	0.21247856828076306	-0.5412133755566452	-0.41005906420118754	1.135656303111838	-0.33267349607634666	-0.4225953469083447	-0.5374790659069345	-0.28460073718671974	0.8989341321821656	-0.17439259665001258	-0.08806009074267011	0.41414375765176914	1.4405875070265246	-1.1101766962027209	-0.7484093113913862	-0.6435031094237434	-0.4073742731595647	0.44439795338465704	0.15546339371344753	0.5756492535784344	-0.13656330811827921	-0.19121819380393784	0.5564709940070449	-0.2604860413761277	-0.07452176328922158	-0.39304005210712273	-0.7746433402624745	-0.6615778690248992	-0.05833013843133834	0.31101097702864894	-0.18444202090984868	-0.6218784616718263	-1.0317505743193853	-0.36543471058353205
-0.7994807703948453	2.6928579547710196	-2.0686612453689817	2.2625191350820444	0.5832385960512497	1.8793066513624197
